{"learner":{"attributes":{"best_iteration":"19","best_score":"3112616.191654839","scikit_learn":"{\"_estimator_type\": \"regressor\"}"},"feature_names":["distance","payload_kg","wind_x","wind_y","flight_vec_x","flight_vec_y","wind_effect_time","wind_effect_energy"],"feature_types":["float","float","float","float","float","float","float","float"],"gradient_booster":{"model":{"gbtree_model_param":{"num_parallel_tree":"1","num_trees":"20"},"iteration_indptr":[0,1,2,3,4,5,6,7,8,9,10,11,12,13,14,15,16,17,18,19,20],"tree_info":[0,0,0,0,0,0,0,0,0,0,0,0,0,0,0,0,0,0,0,0],"trees":[{"base_weights":[-1.3255114E5,1.3255116E5,-1.325792E5,-1.324496E5,-1.2189793E5,6.1625144E7,-1.3258488E4,-1.3259145E4,-1.2675936E4,-9.305886E3,-1.00281734E5,2.6374946E8,-1.230293E5,4.8368655E6,-4.0987573E3,8.9993544E7,-1.03332836E5,7.729215E6,-1.0037516E5,1.6814232E7,-1.2258572E5,1.8948796E6,-5.7347256E3,1.8893469E6,-1.010605E5,1.717671E6,-9.6634234E4,1.0536031E6,-5.766943E3,3.9928372E6,-6.2908423E3,9.1154844E5,-1.2243186E5,1.1169708E6,-9.418815E3,2.0904119E5,-6.427495E3,1.1335373E4,-6.489162E3,1.7349345E5,-8.558456E4,2.4818111E5,-1.1887119E5,1.5292388E6,-1.1335905E5,2.5588027E5,-6.526466E3,1.6413727E3,-6.3112183E3,3.5585793E4,-1.0790442E4,2.4208545E4,-1.1297446E4,2.2174256E5,-6.5645283E3,-2.5050364E3,-1.107974E4,2.9959186E4],"categories":[],"categories_nodes":[],"categories_segments":[],"categories_sizes":[],"default_left":[0,0,0,0,0,0,0,0,0,0,0,0,0,0,0,0,0,0,0,0,0,0,0,0,0,0,0,0,0],"id":0,"left_children":[1,3,5,-1,-1,7,9,-1,11,13,15,-1,17,19,-1,-1,21,-1,-1,-1,23,25,27,-1,-1,-1,-1,-1,-1],"parents":[-1,0,0,1,1,2,2,5,5,6,6,8,8,9,9,10,10,12,12,13,13,16,16,20,20,21,21,22,22],"right_children":[2,4,6,-1,-1,8,10,-1,12,14,16,-1,18,20,-1,-1,22,-1,-1,-1,24,26,28,-1,-1,-1,-1,-1,-1],"split_conditions":[4.6706406E1,2.4076887E1,-1.4454084E1,0E0,0E0,-1.4450023E2,-1.1984016E1,0E0,-2.3547266E1,9.674177E-1,2.6320963E2,0E0,9.890058E2,1.4662788E2,0E0,0E0,3.2547092E0,0E0,0E0,0E0,4.6000586E2,5.4913723E-1,3.922088E2,0E0,0E0,0E0,0E0,0E0,0E0],"split_indices":[6,6,3,0,0,4,2,0,3,1,0,0,0,0,0,0,1,0,0,0,0,1,0,0,0,0,0,0,0],"split_type":[0,0,0,0,0,0,0,0,0,0,0,0,0,0,0,0,0,0,0,0,0,0,0,0,0,0,0,0,0],"tree_param":{"num_deleted":"0","num_feature":"8","num_nodes":"29","size_leaf_vector":"2"}},{"base_weights":[-1.1931249E5,1.3236686E5,-1.1932478E5,-1.1920767E5,-1.1273303E5,5.850925E7,-1.1932819E4,-1.193341E4,-1.1450595E4,-8.406316E3,-9.39221E4,2.5053211E8,-1.13461625E5,4.56043E6,-3.893819E3,8.5493864E7,-9.659639E4,7.307914E6,-9.53564E4,1.5973521E7,-1.124191E5,1.7592532E6,-5.4479893E3,1.7948794E6,-9.412371E4,1.5899792E6,-9.1802516E4,1.00092294E6,-5.478595E3,3.7931958E6,-5.9763003E3,8.65971E5,-1.1208068E5,1.01829294E6,-8.712404E3,1.9336311E5,-6.1061206E3,1.07686045E4,-6.164704E3,1.6481878E5,-8.130533E4,2.3577206E5,-1.0856178E5,1.3938828E6,-1.0422867E5,2.33724E5,-6.200142E3,1.559304E3,-5.9956577E3,3.3806508E4,-8.590441E3,2.8123666E5,-1.0693157E4,7.51354E4,-6.236302E3,-2.3797844E3,-1.0130048E4,2.7391254E4],"categories":[],"categories_nodes":[],"categories_segments":[],"categories_sizes":[],"default_left":[0,0,0,0,0,0,0,0,0,0,0,0,0,0,0,0,0,0,0,0,0,0,0,0,0,0,0,0,0],"id":1,"left_children":[1,3,5,-1,-1,7,9,-1,11,13,15,-1,17,19,-1,-1,21,-1,-1,-1,23,25,27,-1,-1,-1,-1,-1,-1],"parents":[-1,0,0,1,1,2,2,5,5,6,6,8,8,9,9,10,10,12,12,13,13,16,16,20,20,21,21,22,22],"right_children":[2,4,6,-1,-1,8,10,-1,12,14,16,-1,18,20,-1,-1,22,-1,-1,-1,24,26,28,-1,-1,-1,-1,-1,-1],"split_conditions":[4.6706406E1,2.4076887E1,-1.4454084E1,0E0,0E0,-1.4450023E2,-1.1984016E1,0E0,-2.3547266E1,9.674177E-1,2.6320963E2,0E0,9.890058E2,1.4662788E2,0E0,0E0,3.2547092E0,0E0,0E0,0E0,4.6000586E2,-1.0187121E2,3.922088E2,0E0,0E0,0E0,0E0,0E0,0E0],"split_indices":[6,6,3,0,0,4,2,0,3,1,0,0,0,0,0,0,1,0,0,0,0,4,0,0,0,0,0,0,0],"split_type":[0,0,0,0,0,0,0,0,0,0,0,0,0,0,0,0,0,0,0,0,0,0,0,0,0,0,0,0,0],"tree_param":{"num_deleted":"0","num_feature":"8","num_nodes":"29","size_leaf_vector":"2"}},{"base_weights":[-1.073964E5,1.3156322E5,-1.07395445E5,-1.0728965E5,-1.0426053E5,5.555625E7,-1.0739698E4,-1.074023E4,-1.0343704E4,-7.593706E3,-8.798137E4,2.3797787E8,-1.0463336E5,4.3059535E6,-3.6991282E3,8.121917E7,-9.03145E4,6.910291E6,-9.058858E4,1.5174844E7,-1.030693E5,1.6400258E6,-5.1755894E3,1.7051354E6,-8.767505E4,1.4718075E6,-8.721239E4,9.508768E5,-5.2046655E3,3.6035358E6,-5.6774854E3,8.2267244E5,-1.0257023E5,9.3462475E5,-8.0589736E3,1.7886086E5,-5.8008145E3,1.0230174E4,-5.8564688E3,1.5657784E5,-7.724006E4,2.2398347E5,-9.018786E4,1.1904992E4,-1.0080298E5,1.2222306E6,-5.8901353E3,1.4813391E3,-5.6958745E3,3.2116182E4,-7.2756914E3,-2.454979E4,-8.07141E3,2.019809E4,-6.958788E3,4.0591125E5,-1.0029172E4,5.2702516E4],"categories":[],"categories_nodes":[],"categories_segments":[],"categories_sizes":[],"default_left":[0,0,0,0,0,0,0,0,0,0,0,0,0,0,0,0,0,0,0,0,0,0,0,0,0,0,0,0,0],"id":2,"left_children":[1,3,5,-1,-1,7,9,-1,11,13,15,-1,17,19,-1,-1,21,-1,-1,-1,23,25,27,-1,-1,-1,-1,-1,-1],"parents":[-1,0,0,1,1,2,2,5,5,6,6,8,8,9,9,10,10,12,12,13,13,16,16,20,20,21,21,22,22],"right_children":[2,4,6,-1,-1,8,10,-1,12,14,16,-1,18,20,-1,-1,22,-1,-1,-1,24,26,28,-1,-1,-1,-1,-1,-1],"split_conditions":[4.6706406E1,2.4076887E1,-1.4454084E1,0E0,0E0,-1.4450023E2,-1.1984016E1,0E0,-2.3547266E1,9.674177E-1,2.6320963E2,0E0,9.890058E2,1.4662788E2,0E0,0E0,-9.8422676E-1,0E0,0E0,0E0,4.6000586E2,6.7548584E2,3.4087305E0,0E0,0E0,0E0,0E0,0E0,0E0],"split_indices":[6,6,3,0,0,4,2,0,3,1,0,0,0,0,0,0,3,0,0,0,0,0,3,0,0,0,0,0,0],"split_type":[0,0,0,0,0,0,0,0,0,0,0,0,0,0,0,0,0,0,0,0,0,0,0,0,0,0,0,0,0],"tree_param":{"num_deleted":"0","num_feature":"8","num_nodes":"29","size_leaf_vector":"2"}},{"base_weights":[-9.667077E4,1.3023012E5,-9.665874E4,-9.656315E4,-9.644055E4,5.2756372E7,-9.665874E3,-9.666353E3,-9.3438125E3,-6.859648E3,-8.2431016E4,2.2605342E8,-9.6503086E4,4.0703828E6,-3.5141719E3,7.715821E7,-8.445562E4,6.534966E6,-8.605915E4,1.4416102E7,-9.44902E4,1.5340658E6,-4.91681E3,1.6198786E6,-8.16795E4,1.362445E6,-8.285177E4,9.0333294E5,-4.9444326E3,3.4233588E6,-5.393611E3,7.815388E5,-9.385297E4,8.6279375E5,-7.4545503E3,1.654463E5,-5.510774E3,9.718665E3,-5.5636455E3,1.4874895E5,-7.337806E4,2.1278427E5,-8.372692E4,9.989214E3,-9.178443E4,1.1286709E6,-5.5956284E3,1.4072719E3,-5.411081E3,3.051037E4,-6.790645E3,-2.2913137E4,-7.466054E3,1.8683234E4,-6.4948687E3,3.788505E5,-9.097892E3,4.780871E4],"categories":[],"categories_nodes":[],"categories_segments":[],"categories_sizes":[],"default_left":[0,0,0,0,0,0,0,0,0,0,0,0,0,0,0,0,0,0,0,0,0,0,0,0,0,0,0,0,0],"id":3,"left_children":[1,3,5,-1,-1,7,9,-1,11,13,15,-1,17,19,-1,-1,21,-1,-1,-1,23,25,27,-1,-1,-1,-1,-1,-1],"parents":[-1,0,0,1,1,2,2,5,5,6,6,8,8,9,9,10,10,12,12,13,13,16,16,20,20,21,21,22,22],"right_children":[2,4,6,-1,-1,8,10,-1,12,14,16,-1,18,20,-1,-1,22,-1,-1,-1,24,26,28,-1,-1,-1,-1,-1,-1],"split_conditions":[4.6706406E1,2.4076887E1,-1.4454084E1,0E0,0E0,-1.4450023E2,-1.1984016E1,0E0,-2.3547266E1,9.674177E-1,2.6320963E2,0E0,9.890058E2,1.4662788E2,0E0,0E0,-9.8422676E-1,0E0,0E0,0E0,4.6000586E2,6.7548584E2,3.4087305E0,0E0,0E0,0E0,0E0,0E0,0E0],"split_indices":[6,6,3,0,0,4,2,0,3,1,0,0,0,0,0,0,3,0,0,0,0,0,3,0,0,0,0,0,0],"split_type":[0,0,0,0,0,0,0,0,0,0,0,0,0,0,0,0,0,0,0,0,0,0,0,0,0,0,0,0,0],"tree_param":{"num_deleted":"0","num_feature":"8","num_nodes":"29","size_leaf_vector":"2"}},{"base_weights":[-8.701673E4,1.2843746E5,-8.699543E4,-8.690906E4,-8.9238805E4,5.0098276E7,-8.699417E3,-8.699848E3,-8.440578E3,-6.1965483E3,-7.724453E4,2.1472712E8,-8.903577E4,3.8482672E6,-3.3384634E3,7.33003E7,-7.8990414E4,6.1806435E6,-8.1756195E4,1.3695296E7,-8.664314E4,1.435385E6,-4.6709697E3,1.5388848E6,-7.610462E4,1.2612335E6,-7.870919E4,8.581663E5,-4.697211E3,3.2521908E6,-5.1239307E3,7.424619E5,-8.588907E4,7.9663006E5,-6.8954595E3,1.5303783E5,-5.2352354E3,9.232731E3,-5.285463E3,1.413115E5,-6.9709164E4,2.0214506E5,-7.789914E4,1.458323E6,-8.389177E4,4.3473138E5,-5.315847E3,1.3369086E3,-5.140527E3,2.898485E4,-7.399299E3,4.982931E3,-5.844302E3,3.319705E5,-8.174022E3,-7.951123E3,-7.3495728E3,1.2193472E5],"categories":[],"categories_nodes":[],"categories_segments":[],"categories_sizes":[],"default_left":[0,0,0,0,0,0,0,0,0,0,0,0,0,0,0,0,0,0,0,0,0,0,0,0,0,0,0,0,0],"id":4,"left_children":[1,3,5,-1,-1,7,9,-1,11,13,15,-1,17,19,-1,-1,21,-1,-1,-1,23,25,27,-1,-1,-1,-1,-1,-1],"parents":[-1,0,0,1,1,2,2,5,5,6,6,8,8,9,9,10,10,12,12,13,13,16,16,20,20,21,21,22,22],"right_children":[2,4,6,-1,-1,8,10,-1,12,14,16,-1,18,20,-1,-1,22,-1,-1,-1,24,26,28,-1,-1,-1,-1,-1,-1],"split_conditions":[4.6706406E1,2.4076887E1,-1.4454084E1,0E0,0E0,-1.4450023E2,-1.1984016E1,0E0,-2.3547266E1,9.674177E-1,2.6320963E2,0E0,9.890058E2,1.4662788E2,0E0,0E0,-1.0187121E2,0E0,0E0,0E0,4.6000586E2,-9.7800865E0,3.281829E2,0E0,0E0,0E0,0E0,0E0,0E0],"split_indices":[6,6,3,0,0,4,2,0,3,1,0,0,0,0,0,0,4,0,0,0,0,2,4,0,0,0,0,0,0],"split_type":[0,0,0,0,0,0,0,0,0,0,0,0,0,0,0,0,0,0,0,0,0,0,0,0,0,0,0,0,0],"tree_param":{"num_deleted":"0","num_feature":"8","num_nodes":"29","size_leaf_vector":"2"}},{"base_weights":[-7.8327336E4,1.2626877E5,-7.8298195E4,-7.822016E4,-8.2642125E4,4.7576536E7,-7.8295938E3,-7.82998E3,-7.624655E4,-5.597549E4,-7.239724E4,2.0396891E8,-8.222182E4,3.6410262E6,-3.8980408E3,-2.1792969E1,-7.618744E3,-5.789065E3,-3.1715403E3,6.963529E7,-7.389165E4,5.846105E6,-7.766838E4,1.3010532E7,-7.9519336E4,1.3460919E6,-4.4374214E3,1.4619404E6,-7.092029E4,1.1675642E6,-7.477373E4,8.15258E5,-4.4623506E3,3.0895815E6,-4.867734E3,7.053388E5,-7.867003E4,7.3844025E5,-4.3173613E3,1.8791331E5,-6.706356E4,5.1988878E5,-5.02119E3,1.3424592E5,-6.62237E4,1.9203781E5,-7.200117E4,1.3606269E6,-7.65375E4,3.9885716E5,-5.626159E3,6.347111E4,-4.9734736E3,8.771095E3,-5.050055E3,1.2700634E3,-4.883501E3,2.753561E4,-6.807355E3,4.5842964E3,-5.4546816E3,3.0983912E5,-7.4383604E3,-7.2355215E3,-6.737109E3,1.1177349E5],"categories":[],"categories_nodes":[],"categories_segments":[],"categories_sizes":[],"default_left":[0,0,0,0,0,0,0,0,0,0,0,0,0,0,0,0,0,0,0,0,0,0,0,0,0,0,0,0,0,0,0,0,0],"id":5,"left_children":[1,3,5,-1,7,9,11,-1,-1,-1,13,15,17,-1,19,21,-1,-1,23,-1,25,-1,27,29,31,-1,-1,-1,-1,-1,-1,-1,-1],"parents":[-1,0,0,1,1,2,2,4,4,5,5,6,6,10,10,11,11,12,12,14,14,15,15,18,18,20,20,22,22,23,23,24,24],"right_children":[2,4,6,-1,8,10,12,-1,-1,-1,14,16,18,-1,20,22,-1,-1,24,-1,26,-1,28,30,32,-1,-1,-1,-1,-1,-1,-1,-1],"split_conditions":[4.6706406E1,2.4076887E1,-1.4454084E1,0E0,-1.8476587E1,-1.4450023E2,-1.1984016E1,0E0,0E0,0E0,-2.3547266E1,9.674177E-1,2.6320963E2,0E0,4.6000586E2,1.4662788E2,0E0,0E0,-1.0187121E2,0E0,9.890058E2,0E0,4.6000586E2,-9.7800865E0,3.281829E2,0E0,0E0,0E0,0E0,0E0,0E0,0E0,0E0],"split_indices":[6,6,3,0,2,4,2,0,0,0,3,1,0,0,0,0,0,0,4,0,0,0,0,2,4,0,0,0,0,0,0,0,0],"split_type":[0,0,0,0,0,0,0,0,0,0,0,0,0,0,0,0,0,0,0,0,0,0,0,0,0,0,0,0,0,0,0,0,0],"tree_param":{"num_deleted":"0","num_feature":"8","num_nodes":"33","size_leaf_vector":"2"}},{"base_weights":[-7.050702E4,1.23796195E5,-7.0470984E4,-7.0399984E4,-7.666692E4,4.5185576E7,-7.04674E3,-7.0470884E3,-6.900579E3,-5.0571636E3,-6.837551E4,1.9376594E8,-7.59505E4,3.4452672E6,-3.0129634E3,6.6153524E7,-6.972822E4,5.5485105E6,-7.378497E4,1.2360006E7,-7.299037E4,1.2625872E6,-4.2155503E3,1.3888434E6,-6.6811664E4,1.102839E6,-7.103505E4,7.7449506E5,-4.239233E3,2.9351025E6,-4.624347E3,6.700718E5,-7.206196E4,6.845468E5,-4.1014937E3,1.7851766E5,-6.300711E4,4.8596047E5,-4.7701304E3,1.27533625E5,-6.291252E4,1.8243592E5,-6.655277E4,1.2694819E6,-6.982878E4,3.6594062E5,-5.251082E3,5.9239703E4,-4.7248E3,8.33254E3,-4.7975522E3,1.2065602E3,-4.6393257E3,2.6158828E4,-6.2627666E3,4.2175527E3,-5.091036E3,2.891832E5,-6.769748E3,-1.2918255E4,-6.2593486E3,9.502503E4],"categories":[],"categories_nodes":[],"categories_segments":[],"categories_sizes":[],"default_left":[0,0,0,0,0,0,0,0,0,0,0,0,0,0,0,0,0,0,0,0,0,0,0,0,0,0,0,0,0,0,0],"id":6,"left_children":[1,3,5,-1,-1,7,9,-1,11,13,15,-1,17,19,-1,-1,21,-1,23,-1,25,27,29,-1,-1,-1,-1,-1,-1,-1,-1],"parents":[-1,0,0,1,1,2,2,5,5,6,6,8,8,9,9,10,10,12,12,13,13,16,16,18,18,20,20,21,21,22,22],"right_children":[2,4,6,-1,-1,8,10,-1,12,14,16,-1,18,20,-1,-1,22,-1,24,-1,26,28,30,-1,-1,-1,-1,-1,-1,-1,-1],"split_conditions":[4.6706406E1,2.4076887E1,-1.4454084E1,0E0,0E0,-1.4450023E2,-1.1984016E1,0E0,-2.3547266E1,9.674177E-1,2.6320963E2,0E0,4.6000586E2,1.4662788E2,0E0,0E0,-1.0187121E2,0E0,9.890058E2,0E0,4.6000586E2,-9.7800865E0,6.1353516E2,0E0,0E0,0E0,0E0,0E0,0E0,0E0,0E0],"split_indices":[6,6,3,0,0,4,2,0,3,1,0,0,0,0,0,0,4,0,0,0,0,2,0,0,0,0,0,0,0,0,0],"split_type":[0,0,0,0,0,0,0,0,0,0,0,0,0,0,0,0,0,0,0,0,0,0,0,0,0,0,0,0,0,0,0],"tree_param":{"num_deleted":"0","num_feature":"8","num_nodes":"31","size_leaf_vector":"2"}},{"base_weights":[-6.346741E4,1.2106013E5,-6.342576E4,-6.3361613E4,-7.114896E4,4.291465E7,-6.342496E3,-6.345492E3,-6.2450835E3,-5.0635073E3,-6.458166E4,1.840734E8,-7.018058E4,3.2598012E6,-2.8623152E3,6.2845852E7,-6.580422E4,5.2661485E6,-7.009572E4,1.1742005E7,-6.700984E4,1.1838548E6,-4.0047727E3,1.3194014E6,-6.2945973E4,1.041773E6,-6.748329E4,7.357704E5,-4.0272712E3,2.7883472E6,-4.3931304E3,6.365682E5,-6.601685E4,6.339734E5,-3.8964187E3,1.6959177E5,-5.9200375E4,4.5425747E5,-4.531624E3,1.2115695E5,-5.9766895E4,1.7331412E5,-6.3683242E4,1.0876412E6,-6.255421E4,2.711285E5,-4.90101E3,5.5290387E4,-4.48856E3,7.9159126E3,-4.557675E3,1.146232E3,-4.4073594E3,2.4850889E4,-6.0374272E3,-4.871181E3,-5.2725884E3,2.5202605E5,-6.2310986E3,3.6675554E3,-3.2736455E3,1.5422819E5],"categories":[],"categories_nodes":[],"categories_segments":[],"categories_sizes":[],"default_left":[0,0,0,0,0,0,0,0,0,0,0,0,0,0,0,0,0,0,0,0,0,0,0,0,0,0,0,0,0,0,0],"id":7,"left_children":[1,3,5,-1,-1,7,9,-1,11,13,15,-1,17,19,-1,-1,21,-1,23,-1,25,27,29,-1,-1,-1,-1,-1,-1,-1,-1],"parents":[-1,0,0,1,1,2,2,5,5,6,6,8,8,9,9,10,10,12,12,13,13,16,16,18,18,20,20,21,21,22,22],"right_children":[2,4,6,-1,-1,8,10,-1,12,14,16,-1,18,20,-1,-1,22,-1,24,-1,26,28,30,-1,-1,-1,-1,-1,-1,-1,-1],"split_conditions":[4.6706406E1,1.6817593E1,-1.4454084E1,0E0,0E0,-1.4450023E2,-1.1984016E1,0E0,-2.3547266E1,9.674177E-1,2.6320963E2,0E0,4.6000586E2,1.4662788E2,0E0,0E0,4.9740915E0,0E0,9.890058E2,0E0,4.6000586E2,-9.8422676E-1,8.253874E2,0E0,0E0,0E0,0E0,0E0,0E0,0E0,0E0],"split_indices":[6,6,3,0,0,4,2,0,3,1,0,0,0,0,0,0,3,0,0,0,0,3,5,0,0,0,0,0,0,0,0],"split_type":[0,0,0,0,0,0,0,0,0,0,0,0,0,0,0,0,0,0,0,0,0,0,0,0,0,0,0,0,0,0,0],"tree_param":{"num_deleted":"0","num_feature":"8","num_nodes":"31","size_leaf_vector":"2"}},{"base_weights":[-5.713079E4,1.18121836E5,-5.708488E4,-5.702699E4,-6.599922E4,4.0759904E7,-5.708035E3,-5.7085137E3,-5.6298316E4,-4.078832E4,-6.1002504E4,1.7486578E8,-6.4806055E4,3.0867872E6,-3.0458555E3,4.8533008E2,-5.613905E4,-4.2529527E4,-2.7191997E3,5.970355E7,-6.210559E4,4.9982335E6,-6.659093E4,1.1154905E7,-6.1454668E4,1.1128156E6,-5.611331E3,-4.409863E3,-2.8429868E3,7.026914E1,-3.804534E3,1.2534312E6,-5.9308574E4,9.841554E5,-6.4109125E4,6.989818E5,-3.8259075E3,2.6489298E6,-4.1734736E3,6.047398E5,-6.0406344E4,5.898642E5,-3.7015977E3,1.6111217E5,-5.5627727E4,4.246333E5,-4.3050425E3,1.150991E5,-5.677855E4,1.6464842E5,-5.682095E4,1.1279754E6,-5.805244E4,2.9942134E5,-4.574276E3,5.1604363E4,-4.264132E3,7.520117E3,-4.329791E3,1.0889203E3,-4.1869917E3,2.3608344E4,-5.2748774E3,4.0990684E3,-4.4667593E3,2.5636248E5,-5.567459E3,-1.3563167E4,-5.2816475E3,8.160007E4],"categories":[],"categories_nodes":[],"categories_segments":[],"categories_sizes":[],"default_left":[0,0,0,0,0,0,0,0,0,0,0,0,0,0,0,0,0,0,0,0,0,0,0,0,0,0,0,0,0,0,0,0,0,0,0],"id":8,"left_children":[1,3,5,-1,7,9,11,-1,13,-1,15,17,19,-1,-1,-1,21,23,-1,-1,25,-1,27,-1,29,31,33,-1,-1,-1,-1,-1,-1,-1,-1],"parents":[-1,0,0,1,1,2,2,4,4,5,5,6,6,8,8,10,10,11,11,12,12,16,16,17,17,20,20,22,22,24,24,25,25,26,26],"right_children":[2,4,6,-1,8,10,12,-1,14,-1,16,18,20,-1,-1,-1,22,24,-1,-1,26,-1,28,-1,30,32,34,-1,-1,-1,-1,-1,-1,-1,-1],"split_conditions":[4.6706406E1,2.4076887E1,-1.4454084E1,0E0,-1.8476587E1,-1.4450023E2,-1.1984016E1,0E0,1.732673E1,0E0,-2.3547266E1,9.674177E-1,2.6320963E2,0E0,0E0,0E0,4.6000586E2,1.4662788E2,0E0,0E0,-1.0187121E2,0E0,9.890058E2,0E0,4.6000586E2,-9.7800865E0,2.2655128E2,0E0,0E0,0E0,0E0,0E0,0E0,0E0,0E0],"split_indices":[6,6,3,0,2,4,2,0,2,0,3,1,0,0,0,0,0,0,0,0,4,0,0,0,0,2,4,0,0,0,0,0,0,0,0],"split_type":[0,0,0,0,0,0,0,0,0,0,0,0,0,0,0,0,0,0,0,0,0,0,0,0,0,0,0,0,0,0,0,0,0,0,0],"tree_param":{"num_deleted":"0","num_feature":"8","num_nodes":"35","size_leaf_vector":"2"}},{"base_weights":[-5.142813E4,1.15011484E5,-5.137871E4,-5.132558E4,-6.128916E4,3.8712012E7,-5.1376064E3,-5.1402554E3,-5.0838247E3,-4.0842854E3,-5.7625645E4,1.661188E8,-5.9918215E4,2.921261E6,-2.5832395E3,5.6718376E7,-5.861912E4,4.7440215E6,-6.3261383E4,1.0597159E7,-5.6434848E4,1.043954E6,-3.6143074E3,1.1907598E6,-5.5885715E4,9.297872E5,-6.090367E4,6.6403275E5,-3.634612E3,2.5164832E6,-3.9647996E3,5.745028E5,-5.5346223E4,5.4652056E5,-3.5165176E3,1.5305658E5,-5.227456E4,3.969511E5,-4.0897908E3,1.0934415E5,-5.393962E4,1.56416E5,-5.377643E4,1.01972806E6,-5.2289945E4,2.3707912E5,-4.269324E3,4.816407E4,-4.050925E3,7.144111E3,-4.113302E3,1.0344742E3,-3.9776418E3,2.2427928E4,-5.0897456E3,-5.8041504E3,-4.1608896E3,2.8353578E5,-5.187129E3,4.962575E3,-2.8866252E3,1.3369866E5],"categories":[],"categories_nodes":[],"categories_segments":[],"categories_sizes":[],"default_left":[0,0,0,0,0,0,0,0,0,0,0,0,0,0,0,0,0,0,0,0,0,0,0,0,0,0,0,0,0,0,0],"id":9,"left_children":[1,3,5,-1,-1,7,9,-1,11,13,15,-1,17,19,-1,-1,21,-1,23,-1,25,27,29,-1,-1,-1,-1,-1,-1,-1,-1],"parents":[-1,0,0,1,1,2,2,5,5,6,6,8,8,9,9,10,10,12,12,13,13,16,16,18,18,20,20,21,21,22,22],"right_children":[2,4,6,-1,-1,8,10,-1,12,14,16,-1,18,20,-1,-1,22,-1,24,-1,26,28,30,-1,-1,-1,-1,-1,-1,-1,-1],"split_conditions":[4.6706406E1,1.6817593E1,-1.4454084E1,0E0,0E0,-1.4450023E2,-1.1984016E1,0E0,-2.3547266E1,9.674177E-1,2.6320963E2,0E0,4.6000586E2,1.4662788E2,0E0,0E0,3.4087305E0,0E0,9.890058E2,0E0,4.6000586E2,-9.8422676E-1,8.253874E2,0E0,0E0,0E0,0E0,0E0,0E0,0E0,0E0],"split_indices":[6,6,3,0,0,4,2,0,3,1,0,0,0,0,0,0,3,0,0,0,0,3,5,0,0,0,0,0,0,0,0],"split_type":[0,0,0,0,0,0,0,0,0,0,0,0,0,0,0,0,0,0,0,0,0,0,0,0,0,0,0,0,0,0,0],"tree_param":{"num_deleted":"0","num_feature":"8","num_nodes":"31","size_leaf_vector":"2"}},{"base_weights":[-4.6294082E4,1.11790945E5,-4.6242215E4,-4.6194266E4,-5.6883332E4,3.677074E7,-4.623639E3,-4.6241978E3,-4.613746E4,-3.288982E4,-5.443941E4,1.5780942E8,-5.5353492E4,2.769142E6,-2.6393716E3,6.6527814E2,-4.5908152E4,-3.4482766E4,-2.4540774E3,5.388246E7,-5.533239E4,4.502807E6,-6.0098316E4,1.0067302E7,-5.1759055E4,9.845993E5,-4.5800127E3,-3.5907844E3,-2.4466462E3,2.709703E2,-3.4335923E3,1.1312218E6,-5.2664496E4,8.784814E5,-5.7858484E4,6.3083106E5,-3.4528816E3,2.3906592E6,-3.7665598E3,5.457777E5,-5.063657E4,5.1169675E5,-3.340692E3,1.4540373E5,-4.9127164E4,3.71083E5,-3.8853013E3,1.0387694E5,-5.124264E4,1.485952E5,-4.2189406E4,-8.898911E4,-5.0639473E4,7.049729E5,-3.9847026E3,4.495313E4,-3.848379E3,6.786906E3,-3.9076365E3,9.827508E2,-3.7787598E3,2.130653E4,-2.5020955E3,1.9718291E4,-4.0618906E3,-1.856601E4,-4.6656E3,-5.320472E3,-4.8208687E3,1.05443586E5],"categories":[],"categories_nodes":[],"categories_segments":[],"categories_sizes":[],"default_left":[0,0,0,0,0,0,0,0,0,0,0,0,0,0,0,0,0,0,0,0,0,0,0,0,0,0,0,0,0,0,0,0,0,0,0],"id":10,"left_children":[1,3,5,-1,7,9,11,-1,13,-1,15,17,19,-1,-1,-1,21,23,-1,-1,25,-1,27,-1,29,31,33,-1,-1,-1,-1,-1,-1,-1,-1],"parents":[-1,0,0,1,1,2,2,4,4,5,5,6,6,8,8,10,10,11,11,12,12,16,16,17,17,20,20,22,22,24,24,25,25,26,26],"right_children":[2,4,6,-1,8,10,12,-1,14,-1,16,18,20,-1,-1,-1,22,24,-1,-1,26,-1,28,-1,30,32,34,-1,-1,-1,-1,-1,-1,-1,-1],"split_conditions":[4.6706406E1,2.4076887E1,-1.4454084E1,0E0,-1.8476587E1,-1.4450023E2,-1.1984016E1,0E0,1.732673E1,0E0,-2.3547266E1,9.674177E-1,2.6320963E2,0E0,0E0,0E0,4.6000586E2,1.4662788E2,0E0,0E0,5.4913723E-1,0E0,9.890058E2,0E0,4.6000586E2,4.9740915E0,-9.8422676E-1,0E0,0E0,0E0,0E0,0E0,0E0,0E0,0E0],"split_indices":[6,6,3,0,2,4,2,0,2,0,3,1,0,0,0,0,0,0,0,0,1,0,0,0,0,3,3,0,0,0,0,0,0,0,0],"split_type":[0,0,0,0,0,0,0,0,0,0,0,0,0,0,0,0,0,0,0,0,0,0,0,0,0,0,0,0,0,0,0,0,0,0,0],"tree_param":{"num_deleted":"0","num_feature":"8","num_nodes":"35","size_leaf_vector":"2"}},{"base_weights":[-4.1673547E4,1.08439055E5,-4.1619918E4,-4.1575816E4,-5.281697E4,3.4917876E7,-4.1616143E3,-4.1639424E3,-4.138581E3,-3.292751E3,-5.1432816E4,1.4991574E8,-5.1158203E4,2.6139155E6,-2.3313735E3,5.1188336E7,-5.223371E4,4.2739205E6,-5.70934E4,9.563936E6,-4.748392E4,9.1555094E5,-3.2619126E3,1.0746606E6,-4.96328E4,8.3006194E5,-5.4965562E4,5.992895E5,-3.2802375E3,2.2711262E6,-3.5782317E3,5.184888E5,-4.6337223E4,4.6534972E5,-3.1736572E3,1.3813355E5,-4.6172715E4,3.4690972E5,-3.691036E3,9.8683086E4,-4.868051E4,1.4116544E5,-4.54339E4,9.2943606E5,-4.3543605E4,1.6691823E5,-3.7190557E3,4.1956254E4,-3.6559597E3,6.44756E3,-3.7122546E3,9.336133E2,-3.589822E3,2.0241203E4,-4.2768003E3,-4.8770986E3,-3.5621057E3,2.5760383E5,-4.3045034E3,-7.5365686E2,-2.5012507E3,1.2174154E5],"categories":[],"categories_nodes":[],"categories_segments":[],"categories_sizes":[],"default_left":[0,0,0,0,0,0,0,0,0,0,0,0,0,0,0,0,0,0,0,0,0,0,0,0,0,0,0,0,0,0,0],"id":11,"left_children":[1,3,5,-1,-1,7,9,-1,11,13,15,-1,17,19,-1,-1,21,-1,23,-1,25,27,29,-1,-1,-1,-1,-1,-1,-1,-1],"parents":[-1,0,0,1,1,2,2,5,5,6,6,8,8,9,9,10,10,12,12,13,13,16,16,18,18,20,20,21,21,22,22],"right_children":[2,4,6,-1,-1,8,10,-1,12,14,16,-1,18,20,-1,-1,22,-1,24,-1,26,28,30,-1,-1,-1,-1,-1,-1,-1,-1],"split_conditions":[4.6706406E1,1.6817593E1,-1.4454084E1,0E0,0E0,-1.4450023E2,-1.1984016E1,0E0,-2.3547266E1,9.674177E-1,2.6320963E2,0E0,4.6000586E2,1.4662788E2,0E0,0E0,3.4087305E0,0E0,9.890058E2,0E0,4.6000586E2,-9.8422676E-1,8.253874E2,0E0,0E0,0E0,0E0,0E0,0E0,0E0,0E0],"split_indices":[6,6,3,0,0,4,2,0,3,1,0,0,0,0,0,0,3,0,0,0,0,3,5,0,0,0,0,0,0,0,0],"split_type":[0,0,0,0,0,0,0,0,0,0,0,0,0,0,0,0,0,0,0,0,0,0,0,0,0,0,0,0,0,0,0],"tree_param":{"num_deleted":"0","num_feature":"8","num_nodes":"31","size_leaf_vector":"2"}},{"base_weights":[-3.751383E4,1.0506802E5,-3.7459043E4,-3.741924E4,-4.9055215E4,3.3167736E7,-3.7452415E3,-3.745844E3,-3.784529E4,-2.6506336E4,-4.859553E4,1.4241696E8,-4.729224E4,2.4788002E6,-2.3004739E3,7.9665155E2,-3.7563766E4,-2.7969762E4,-2.2148047E3,4.862892E7,-4.93121E4,4.056728E6,-5.423873E4,9.085739E6,-4.3563844E4,8.645505E5,-3.4920857E3,-1.2644841E3,-3.700703E4,-3.4233734E4,-3.098817E3,1.0209276E6,-4.6779258E4,7.8436325E5,-5.221728E4,5.6932506E5,-3.1162258E3,2.1575698E6,-3.39932E3,4.9256434E5,-4.2400863E4,4.366107E5,-3.6922496E4,-3.6278363E4,-1.9306576E3,2.3071133E2,-3.0149744E3,1.3122688E5,-4.33992E4,3.243197E5,-3.5064841E3,9.374893E4,-4.6246484E4,1.3410717E5,-4.187037E4,8.680833E5,-3.9675367E4,1.5886842E5,-2.8647822E3,-1.088806E3,-3.668351E3,-4.0358542E3,-3.4711187E3,3.915917E4,-3.4731619E3,6.125182E3,-3.5266418E3,8.869328E2,-3.4103308E3,1.9229145E4,-3.9204001E3,-4.470673E3,-3.324632E3,2.4043023E5,-3.9071648E3,-6.840879E2,-2.3761882E3,1.1565446E5],"categories":[],"categories_nodes":[],"categories_segments":[],"categories_sizes":[],"default_left":[0,0,0,0,0,0,0,0,0,0,0,0,0,0,0,0,0,0,0,0,0,0,0,0,0,0,0,0,0,0,0,0,0,0,0,0,0,0,0],"id":12,"left_children":[1,3,5,-1,7,9,11,-1,13,-1,15,17,19,-1,21,-1,23,25,-1,-1,27,29,-1,-1,31,-1,33,35,37,-1,-1,-1,-1,-1,-1,-1,-1,-1,-1],"parents":[-1,0,0,1,1,2,2,4,4,5,5,6,6,8,8,10,10,11,11,12,12,14,14,16,16,17,17,20,20,21,21,24,24,26,26,27,27,28,28],"right_children":[2,4,6,-1,8,10,12,-1,14,-1,16,18,20,-1,22,-1,24,26,-1,-1,28,30,-1,-1,32,-1,34,36,38,-1,-1,-1,-1,-1,-1,-1,-1,-1,-1],"split_conditions":[4.6706406E1,2.4076887E1,-1.4454084E1,0E0,-1.8476587E1,-1.4450023E2,-1.1984016E1,0E0,-2.703503E2,0E0,-2.3547266E1,9.674177E-1,2.6320963E2,0E0,1.3506431E1,0E0,4.6000586E2,1.4662788E2,0E0,0E0,3.4087305E0,-5.7216644E2,0E0,0E0,9.890058E2,0E0,4.6000586E2,-9.8422676E-1,8.253874E2,0E0,0E0,0E0,0E0,0E0,0E0,0E0,0E0,0E0,0E0],"split_indices":[6,6,3,0,2,4,2,0,5,0,3,1,0,0,2,0,0,0,0,0,3,4,0,0,0,0,0,3,5,0,0,0,0,0,0,0,0,0,0],"split_type":[0,0,0,0,0,0,0,0,0,0,0,0,0,0,0,0,0,0,0,0,0,0,0,0,0,0,0,0,0,0,0,0,0,0,0,0,0,0,0],"tree_param":{"num_deleted":"0","num_feature":"8","num_nodes":"39","size_leaf_vector":"2"}},{"base_weights":[-3.3770996E4,1.0165954E5,-3.3715562E4,-3.3678543E4,-4.5579703E4,3.1505378E7,-3.3710361E3,-3.3730715E3,-3.379379E4,-2.6592488E4,-4.5917816E4,1.3529331E8,-4.3735605E4,2.3507252E6,-3.3693477E3,-2.7803447E3,-2.8138465E4,-7.953439E3,-2.1040645E3,4.619747E7,-4.655724E4,3.8506282E6,-5.1526793E4,8.631453E6,-3.99769E4,8.164361E5,-2.4464675E3,5.2662787E2,-2.2432766E3,-1.852201E3,-2.9438757E3,9.698812E5,-4.4093184E4,7.412292E5,-4.960642E4,5.408588E5,-2.9604146E3,2.0496914E6,-3.229354E3,4.6793616E5,-3.880499E4,4.0966056E5,-2.8642258E3,1.2466552E5,-4.0795348E4,3.0320884E5,-3.33116E3,8.906149E4,-4.393416E4,1.2740181E5,-3.8588965E4,8.1076994E5,-3.6156645E4,1.5119373E5,-3.239711E3,3.6548562E4,-3.2995037E3,5.818923E3,-3.3503098E3,8.4258594E2,-3.2398145E3,1.8267686E4,-3.5937002E3,-4.0981157E3,-3.10299E3,2.2440155E5,-3.5465034E3,-6.2094147E2,-2.2573787E3,1.0987174E5],"categories":[],"categories_nodes":[],"categories_segments":[],"categories_sizes":[],"default_left":[0,0,0,0,0,0,0,0,0,0,0,0,0,0,0,0,0,0,0,0,0,0,0,0,0,0,0,0,0,0,0,0,0,0,0],"id":13,"left_children":[1,3,5,-1,7,9,11,-1,13,-1,15,17,19,-1,-1,-1,21,23,-1,-1,25,-1,27,-1,29,31,33,-1,-1,-1,-1,-1,-1,-1,-1],"parents":[-1,0,0,1,1,2,2,4,4,5,5,6,6,8,8,10,10,11,11,12,12,16,16,17,17,20,20,22,22,24,24,25,25,26,26],"right_children":[2,4,6,-1,8,10,12,-1,14,-1,16,18,20,-1,-1,-1,22,24,-1,-1,26,-1,28,-1,30,32,34,-1,-1,-1,-1,-1,-1,-1,-1],"split_conditions":[4.6706406E1,1.6817593E1,-1.4454084E1,0E0,6.199212E2,-1.4450023E2,-1.1984016E1,0E0,7.2377216E2,0E0,-2.3547266E1,9.674177E-1,2.6320963E2,0E0,0E0,0E0,4.6000586E2,1.4662788E2,0E0,0E0,3.4087305E0,0E0,9.890058E2,0E0,4.6000586E2,-9.8422676E-1,8.253874E2,0E0,0E0,0E0,0E0,0E0,0E0,0E0,0E0],"split_indices":[6,6,3,0,4,4,2,0,4,0,3,1,0,0,0,0,0,0,0,0,3,0,0,0,0,3,5,0,0,0,0,0,0,0,0],"split_type":[0,0,0,0,0,0,0,0,0,0,0,0,0,0,0,0,0,0,0,0,0,0,0,0,0,0,0,0,0,0,0,0,0,0,0],"tree_param":{"num_deleted":"0","num_feature":"8","num_nodes":"35","size_leaf_vector":"2"}},{"base_weights":[-3.0401205E4,9.823655E4,-3.0345547E4,-3.0311695E4,-4.2367453E4,2.9926392E7,-3.0342383E3,-3.0370276E3,-3.026456E3,-2.508167E3,-4.339052E4,1.2852603E8,-4.0462492E4,2.2293202E6,-1.9988613E3,4.3887596E7,-4.39594E4,3.655051E6,-4.8950453E4,8.19988E6,-3.6694207E4,7.7104206E5,-2.7966821E3,9.213871E5,-4.156455E4,7.005129E5,-4.71261E4,5.1381584E5,-2.8123938E3,1.9472069E6,-3.0678865E3,4.4453934E5,-3.5519754E4,3.8438756E5,-2.7210144E3,1.1843225E5,-3.8350617E4,2.8347984E5,-3.164602E3,8.4608414E4,-4.1737453E4,1.2103172E5,-3.5356418E4,8.048923E5,-3.3227992E4,1.6252619E5,-3.0237302E3,3.4111996E4,-3.1345286E3,5.5279766E3,-3.1827942E3,8.0045624E2,-3.077824E3,1.7354303E4,-3.1247893E3,3.078425E3,-3.0418486E3,1.826775E5,-3.2207073E3,-1.6930586E4,-2.9793748E3,5.6594938E4],"categories":[],"categories_nodes":[],"categories_segments":[],"categories_sizes":[],"default_left":[0,0,0,0,0,0,0,0,0,0,0,0,0,0,0,0,0,0,0,0,0,0,0,0,0,0,0,0,0,0,0],"id":14,"left_children":[1,3,5,-1,-1,7,9,-1,11,13,15,-1,17,19,-1,-1,21,-1,23,-1,25,27,29,-1,-1,-1,-1,-1,-1,-1,-1],"parents":[-1,0,0,1,1,2,2,5,5,6,6,8,8,9,9,10,10,12,12,13,13,16,16,18,18,20,20,21,21,22,22],"right_children":[2,4,6,-1,-1,8,10,-1,12,14,16,-1,18,20,-1,-1,22,-1,24,-1,26,28,30,-1,-1,-1,-1,-1,-1,-1,-1],"split_conditions":[4.6706406E1,1.3126775E1,-1.4454084E1,0E0,0E0,-1.4450023E2,-1.1984016E1,0E0,-2.3547266E1,9.674177E-1,2.6320963E2,0E0,4.6000586E2,1.4662788E2,0E0,0E0,-1.0187121E2,0E0,9.890058E2,0E0,4.6000586E2,-9.7800865E0,6.1353516E2,0E0,0E0,0E0,0E0,0E0,0E0,0E0,0E0],"split_indices":[6,6,3,0,0,4,2,0,3,1,0,0,0,0,0,0,4,0,0,0,0,2,0,0,0,0,0,0,0,0,0],"split_type":[0,0,0,0,0,0,0,0,0,0,0,0,0,0,0,0,0,0,0,0,0,0,0,0,0,0,0,0,0,0,0],"tree_param":{"num_deleted":"0","num_feature":"8","num_nodes":"31","size_leaf_vector":"2"}},{"base_weights":[-2.7367441E4,9.480707E4,-2.7311809E4,-2.7281271E4,-3.94228E4,2.8423972E7,-2.730349E3,-2.7310466E3,-2.845242E4,-1.9173602E4,-4.100501E4,1.220973E8,-3.748056E4,2.1110008E6,-1.86566E3,1.02124457E3,-2.8146877E4,-2.0539068E4,-1.8989183E3,4.1693216E7,-4.1509453E4,3.4694558E6,-4.6502934E4,7.7898855E6,-3.372636E4,7.243906E5,-2.6318938E3,-7.501354E2,-2.7653502E4,-2.603097E4,-2.6568481E3,8.753177E5,-3.9183953E4,6.6207606E5,-4.4769797E4,4.8812506E5,-2.6717742E3,1.8498464E6,-2.914492E3,4.223124E5,-3.255667E4,3.5668312E5,-2.7514912E4,-2.7910076E4,-1.5143346E3,4.8360138E2,-2.5849636E3,1.1251064E5,-3.605512E4,2.6504188E5,-3.0063718E3,8.037799E4,-3.9650582E4,1.1498013E5,-3.2871125E4,4.765362E5,-2.3002449E3,-2.7182646E4,-2.1702383E3,-6.105073E2,-2.7248364E3,-3.1616948E3,-2.8221482E3,3.1837863E4,-2.9778022E3,5.251578E3,-3.0236545E3,7.604336E2,-2.9239326E3,1.6486586E4,-3.1798325E3,1.5340288E4,-3.0237336E3,8.612774E4],"categories":[],"categories_nodes":[],"categories_segments":[],"categories_sizes":[],"default_left":[0,0,0,0,0,0,0,0,0,0,0,0,0,0,0,0,0,0,0,0,0,0,0,0,0,0,0,0,0,0,0,0,0,0,0,0,0],"id":15,"left_children":[1,3,5,-1,7,9,11,-1,13,-1,15,17,19,-1,21,-1,23,25,-1,-1,27,29,-1,-1,31,-1,33,35,-1,-1,-1,-1,-1,-1,-1,-1,-1],"parents":[-1,0,0,1,1,2,2,4,4,5,5,6,6,8,8,10,10,11,11,12,12,14,14,16,16,17,17,20,20,21,21,24,24,26,26,27,27],"right_children":[2,4,6,-1,8,10,12,-1,14,-1,16,18,20,-1,22,-1,24,26,-1,-1,28,30,-1,-1,32,-1,34,36,-1,-1,-1,-1,-1,-1,-1,-1,-1],"split_conditions":[4.6706406E1,2.4076887E1,-1.4454084E1,0E0,-1.8476587E1,-1.4450023E2,-1.1984016E1,0E0,-2.703503E2,0E0,-2.3547266E1,9.674177E-1,2.6320963E2,0E0,1.3506431E1,0E0,4.6000586E2,1.4662788E2,0E0,0E0,1.800094E1,-5.7216644E2,0E0,0E0,9.890058E2,0E0,4.6000586E2,6.7548584E2,0E0,0E0,0E0,0E0,0E0,0E0,0E0,0E0,0E0],"split_indices":[6,6,3,0,2,4,2,0,5,0,3,1,0,0,2,0,0,0,0,0,3,4,0,0,0,0,0,0,0,0,0,0,0,0,0,0,0],"split_type":[0,0,0,0,0,0,0,0,0,0,0,0,0,0,0,0,0,0,0,0,0,0,0,0,0,0,0,0,0,0,0,0,0,0,0,0,0],"tree_param":{"num_deleted":"0","num_feature":"8","num_nodes":"37","size_leaf_vector":"2"}},{"base_weights":[-2.4637352E4,9.138195E4,-2.4582463E4,-2.4553918E4,-3.6605043E4,2.6992894E7,-2.4578582E3,-2.4602988E3,-2.4626918E4,-2.0182639E4,-3.875318E4,1.1599016E8,-3.4618812E4,1.9939034E6,-2.3014475E3,-2.9479539E3,-2.4519293E4,-1.875034E4,-1.8039723E3,3.9608556E7,-3.91988E4,3.2933298E6,-4.4177785E4,7.400391E6,-3.0872736E4,6.745242E5,-2.3438875E3,-2.0892334E3,-2.5820186E4,-1.3580418E4,-2.5240056E3,8.315518E5,-3.694254E4,6.2578844E5,-4.2531305E4,4.637188E5,-2.5381855E3,1.757354E6,-2.7687673E3,4.011968E5,-2.9705945E4,3.245522E5,-2.385798E3,-4.0942673E2,-2.545559E4,-1.8361658E4,-2.4557156E3,1.068851E5,-3.3899598E4,2.4781003E5,-2.8560535E3,7.635909E4,-3.766805E4,1.0923112E5,-3.016339E4,6.723929E5,-2.7322695E4,1.0260379E5,-1.772377E3,9.7018243E2,-2.4831094E3,-2.0721992E3,-2.634005E3,2.9715338E4,-2.828912E3,4.9889995E3,-2.8724717E3,7.2241174E2,-2.777736E3,1.5662257E4,-2.77747E3,-9.389331E3,-2.488631E3,1.9808344E5,-2.659178E3,-2.9408052E3,-1.8412307E3,9.093789E4],"categories":[],"categories_nodes":[],"categories_segments":[],"categories_sizes":[],"default_left":[0,0,0,0,0,0,0,0,0,0,0,0,0,0,0,0,0,0,0,0,0,0,0,0,0,0,0,0,0,0,0,0,0,0,0,0,0,0,0],"id":16,"left_children":[1,3,5,-1,7,9,11,-1,13,-1,15,17,19,-1,21,-1,23,25,-1,-1,27,-1,29,-1,31,-1,33,35,37,-1,-1,-1,-1,-1,-1,-1,-1,-1,-1],"parents":[-1,0,0,1,1,2,2,4,4,5,5,6,6,8,8,10,10,11,11,12,12,14,14,16,16,17,17,20,20,22,22,24,24,26,26,27,27,28,28],"right_children":[2,4,6,-1,8,10,12,-1,14,-1,16,18,20,-1,22,-1,24,26,-1,-1,28,-1,30,-1,32,-1,34,36,38,-1,-1,-1,-1,-1,-1,-1,-1,-1,-1],"split_conditions":[4.6706406E1,1.3126775E1,-1.4454084E1,0E0,3.2421036E2,-1.4450023E2,-1.1984016E1,0E0,2.4076887E1,0E0,-2.3547266E1,9.674177E-1,2.6320963E2,0E0,-4.0558915E0,0E0,4.6000586E2,1.4662788E2,0E0,0E0,3.4087305E0,0E0,-1.8476587E1,0E0,9.890058E2,0E0,4.6000586E2,-9.8422676E-1,8.253874E2,0E0,0E0,0E0,0E0,0E0,0E0,0E0,0E0,0E0,0E0],"split_indices":[6,6,3,0,0,4,2,0,6,0,3,1,0,0,3,0,0,0,0,0,3,0,2,0,0,0,0,3,5,0,0,0,0,0,0,0,0,0,0],"split_type":[0,0,0,0,0,0,0,0,0,0,0,0,0,0,0,0,0,0,0,0,0,0,0,0,0,0,0,0,0,0,0,0,0,0,0,0,0,0,0],"tree_param":{"num_deleted":"0","num_feature":"8","num_nodes":"39","size_leaf_vector":"2"}},{"base_weights":[-2.2180264E4,8.802365E4,-2.2126068E4,-2.209974E4,-3.4064113E4,2.5640782E7,-2.2121057E3,-2.2143025E3,-2.2292484E4,-1.8238791E4,-3.6627375E4,1.1018853E8,-3.2063844E4,1.8917434E6,-2.0943171E3,-2.682638E3,-2.21811E4,-1.6920883E4,-1.7137738E3,3.762813E7,-3.701936E4,3.126187E6,-4.19689E4,7.030372E6,-2.8355248E4,6.378849E5,-2.1138394E3,-1.8841788E3,-2.3493602E4,-1.2280509E4,-2.3978052E3,7.899742E5,-3.483201E4,5.915275E5,-4.0404742E4,4.4053288E5,-2.4112761E3,1.6694864E6,-2.630329E3,3.8113697E5,-2.7200424E4,3.0527275E5,-2.2066709E4,-4.750397E3,-2.3068875E4,-1.7485898E4,-2.3329297E3,1.0154085E5,-3.1875367E4,2.317051E5,-2.7132507E3,7.254114E4,-3.578465E4,1.0376957E5,-2.7854275E4,6.7060875E5,-2.5081932E4,1.1443112E5,-2.1238772E3,-7.9085803E2,-1.7470931E3,7.3603467E2,-1.683758E3,9.2167346E2,-2.2311284E3,-2.0051567E3,-2.4584045E3,2.7734312E4,-2.6874666E3,4.7395503E3,-2.7288481E3,6.8629144E2,-2.6388494E3,1.4879144E4,-2.4068318E3,-6.043944E2,-2.4879446E3,1.5748269E5,-2.3855671E3,-1.7378977E4,-2.307542E3,4.686535E4],"categories":[],"categories_nodes":[],"categories_segments":[],"categories_sizes":[],"default_left":[0,0,0,0,0,0,0,0,0,0,0,0,0,0,0,0,0,0,0,0,0,0,0,0,0,0,0,0,0,0,0,0,0,0,0,0,0,0,0,0,0],"id":17,"left_children":[1,3,5,-1,7,9,11,-1,13,-1,15,17,19,-1,21,-1,23,25,-1,-1,27,29,31,-1,33,-1,35,37,39,-1,-1,-1,-1,-1,-1,-1,-1,-1,-1,-1,-1],"parents":[-1,0,0,1,1,2,2,4,4,5,5,6,6,8,8,10,10,11,11,12,12,14,14,16,16,17,17,20,20,21,21,22,22,24,24,26,26,27,27,28,28],"right_children":[2,4,6,-1,8,10,12,-1,14,-1,16,18,20,-1,22,-1,24,26,-1,-1,28,30,32,-1,34,-1,36,38,40,-1,-1,-1,-1,-1,-1,-1,-1,-1,-1,-1,-1],"split_conditions":[4.6706406E1,1.3126775E1,-1.4454084E1,0E0,3.2421036E2,-1.4450023E2,-1.1984016E1,0E0,2.4076887E1,0E0,-2.3547266E1,9.674177E-1,2.6320963E2,0E0,-1.953915E0,0E0,4.6000586E2,1.4662788E2,0E0,0E0,-1.0187121E2,5.1999744E2,-1.8476587E1,0E0,9.890058E2,0E0,4.6000586E2,-9.7800865E0,2.2655128E2,0E0,0E0,0E0,0E0,0E0,0E0,0E0,0E0,0E0,0E0,0E0,0E0],"split_indices":[6,6,3,0,0,4,2,0,6,0,3,1,0,0,3,0,0,0,0,0,4,4,2,0,0,0,0,2,4,0,0,0,0,0,0,0,0,0,0,0,0],"split_type":[0,0,0,0,0,0,0,0,0,0,0,0,0,0,0,0,0,0,0,0,0,0,0,0,0,0,0,0,0,0,0,0,0,0,0,0,0,0,0,0,0],"tree_param":{"num_deleted":"0","num_feature":"8","num_nodes":"41","size_leaf_vector":"2"}},{"base_weights":[-1.9968744E4,8.470194E4,-1.9915375E4,-1.9890832E4,-3.1729602E4,2.4354116E7,-1.9909254E3,-1.9929023E3,-2.0199531E4,-1.6479742E4,-3.4620406E4,1.0467711E8,-2.973094E4,1.7919956E6,-1.9950797E4,-2.0184744E4,-1.9984794E3,-1.4110623E3,-1.6280852E3,3.574672E7,-3.4963523E4,2.9675665E6,-3.9870453E4,6.678853E6,-2.6075098E4,5.998919E5,-1.0964408E3,1.5349063E2,-1.988699E4,-2.093489E4,-2.2779148E3,7.504755E5,-3.284457E4,5.591777E5,-3.8384504E4,4.185062E5,-2.2907126E3,1.586012E6,-2.4988127E3,3.620801E5,-2.4936947E4,2.8362E5,-1.9609506E3,-2.2677544E3,-1.7774928E4,-9.894249E3,-2.2162832E3,9.646381E4,-2.9974297E4,2.1665308E5,-2.5775884E3,6.891408E4,-3.3995418E4,9.858109E4,-2.5716678E4,5.9973775E5,-2.2710176E4,8.2722695E4,-1.6518289E3,-1.4526255E3,-1.202906E3,6.6328906E2,-2.2945107E3,2.5885363E4,-2.5530933E3,4.502572E3,-2.5924058E3,6.5197656E2,-2.506907E3,1.41351875E4,-2.347454E3,-9.068107E3,-2.1628726E3,1.7806628E5,-2.2154497E3,-9.66588E3,-1.8560752E3,5.5534113E4],"categories":[],"categories_nodes":[],"categories_segments":[],"categories_sizes":[],"default_left":[0,0,0,0,0,0,0,0,0,0,0,0,0,0,0,0,0,0,0,0,0,0,0,0,0,0,0,0,0,0,0,0,0,0,0,0,0,0,0],"id":18,"left_children":[1,3,5,-1,7,9,11,13,-1,-1,15,17,19,-1,21,-1,23,25,-1,-1,27,-1,29,-1,31,-1,33,35,37,-1,-1,-1,-1,-1,-1,-1,-1,-1,-1],"parents":[-1,0,0,1,1,2,2,4,4,5,5,6,6,7,7,10,10,11,11,12,12,14,14,16,16,17,17,20,20,22,22,24,24,26,26,27,27,28,28],"right_children":[2,4,6,-1,8,10,12,14,-1,-1,16,18,20,-1,22,-1,24,26,-1,-1,28,-1,30,-1,32,-1,34,36,38,-1,-1,-1,-1,-1,-1,-1,-1,-1,-1],"split_conditions":[4.6706406E1,1.3126775E1,-1.4454084E1,0E0,6.331458E2,-1.4450023E2,-1.1984016E1,-4.2453568E2,0E0,0E0,-2.3547266E1,9.674177E-1,2.6320963E2,0E0,1.1164394E1,0E0,4.6000586E2,1.4662788E2,0E0,0E0,3.4087305E0,0E0,-1.0569103E0,0E0,9.890058E2,0E0,4.6000586E2,-9.8422676E-1,5.460892E2,0E0,0E0,0E0,0E0,0E0,0E0,0E0,0E0,0E0,0E0],"split_indices":[6,6,3,0,0,4,2,5,0,0,3,1,0,0,3,0,0,0,0,0,3,0,2,0,0,0,0,3,5,0,0,0,0,0,0,0,0,0,0],"split_type":[0,0,0,0,0,0,0,0,0,0,0,0,0,0,0,0,0,0,0,0,0,0,0,0,0,0,0,0,0,0,0,0,0,0,0,0,0,0,0],"tree_param":{"num_deleted":"0","num_feature":"8","num_nodes":"39","size_leaf_vector":"2"}},{"base_weights":[-1.797749E4,8.1443555E4,-1.792517E4,-1.7902598E4,-2.9557209E4,2.3133414E7,-1.7916902E3,-1.7929612E3,-1.8653936E4,-1.4225686E4,-3.2725492E4,9.9441416E7,-2.7567395E4,1.6992061E6,-1.7108247E3,-2.3901658E3,-1.8533004E4,-1.2463504E4,-1.5466809E3,3.3959388E7,-3.302414E4,2.817031E6,-3.787693E4,6.3449105E6,-2.3971256E4,5.6612756E5,-1.8345145E4,-1.3313377E4,-1.6629863E4,-1.8120242E3,-2.1640193E3,7.129517E5,-3.097289E4,5.286303E5,-3.6465277E4,3.975809E5,-2.176177E3,1.5067114E6,-2.373872E3,3.439761E5,-2.2851912E4,2.6548972E5,-1.7631145E3,-1.6272437E3,-1.8324512E4,-9.676299E3,-1.4973882E3,7.810366E2,-1.2742555E3,-1.0830406E3,-2.105469E3,9.1640625E4,-2.8188768E4,2.0258475E5,-2.4487087E3,6.5468375E4,-3.2295646E4,9.365204E4,-2.3118016E4,3.678072E5,-1.594147E4,-2.6131131E5,-1.6786716E3,7.311475E2,-1.7701279E3,-1.1552982E3,-2.1415435E3,2.4159672E4,-2.4254385E3,4.277444E3,-2.4627854E3,6.193781E2,-2.3815615E3,1.3428429E4,-2.151833E3,-8.312432E3,-2.2078025E3,5.4763656E4,-1.1187257E3,-6.866194E3,-1.3797122E3,-3.0264047E4],"categories":[],"categories_nodes":[],"categories_segments":[],"categories_sizes":[],"default_left":[0,0,0,0,0,0,0,0,0,0,0,0,0,0,0,0,0,0,0,0,0,0,0,0,0,0,0,0,0,0,0,0,0,0,0,0,0,0,0,0,0],"id":19,"left_children":[1,3,5,-1,7,9,11,-1,13,-1,15,17,19,21,23,-1,25,27,-1,-1,29,-1,31,-1,-1,-1,33,-1,35,37,39,-1,-1,-1,-1,-1,-1,-1,-1,-1,-1],"parents":[-1,0,0,1,1,2,2,4,4,5,5,6,6,8,8,10,10,11,11,12,12,13,13,14,14,16,16,17,17,20,20,22,22,26,26,28,28,29,29,30,30],"right_children":[2,4,6,-1,8,10,12,-1,14,-1,16,18,20,22,24,-1,26,28,-1,-1,30,-1,32,-1,-1,-1,34,-1,36,38,40,-1,-1,-1,-1,-1,-1,-1,-1,-1,-1],"split_conditions":[4.6706406E1,1.6817593E1,-1.4454084E1,0E0,3.2421036E2,-1.4450023E2,-1.1984016E1,0E0,6.199212E2,0E0,-2.3547266E1,9.674177E-1,2.6320963E2,2.6029906E0,7.2377216E2,0E0,4.6000586E2,1.4662788E2,0E0,0E0,1.800094E1,0E0,-4.814699E2,0E0,0E0,0E0,9.890058E2,0E0,4.6000586E2,-9.8422676E-1,4.993845E2,0E0,0E0,0E0,0E0,0E0,0E0,0E0,0E0,0E0,0E0],"split_indices":[6,6,3,0,0,4,2,0,4,0,3,1,0,1,4,0,0,0,0,0,3,0,4,0,0,0,0,0,0,3,0,0,0,0,0,0,0,0,0,0,0],"split_type":[0,0,0,0,0,0,0,0,0,0,0,0,0,0,0,0,0,0,0,0,0,0,0,0,0,0,0,0,0,0,0,0,0,0,0,0,0,0,0,0,0],"tree_param":{"num_deleted":"0","num_feature":"8","num_nodes":"41","size_leaf_vector":"2"}}]},"name":"gbtree"},"learner_model_param":{"base_score":"1.3266998E5","boost_from_average":"1","num_class":"0","num_feature":"8","num_target":"2"},"objective":{"name":"reg:squarederror","reg_loss_param":{"scale_pos_weight":"1"}}},"version":[2,0,3]}